digraph Tree {
node [shape=box, style="filled", color="black", fontname="helvetica"] ;
edge [fontname="helvetica"] ;
0 [label="X[1] <= 0.42\ngini = 0.5\nsamples = 100\nvalue = [49, 51]", fillcolor="#f7fbfe"] ;
1 [label="X[0] <= -0.218\ngini = 0.316\nsamples = 56\nvalue = [11, 45]", fillcolor="#69b5eb"] ;
0 -> 1 [labeldistance=2.5, labelangle=45, headlabel="True"] ;
3 [label="X[1] <= 0.117\ngini = 0.42\nsamples = 10\nvalue = [7, 3]", fillcolor="#f0b78e"] ;
1 -> 3 ;
7 [label="X[0] <= -1.207\ngini = 0.5\nsamples = 6\nvalue = [3, 3]", fillcolor="#ffffff"] ;
3 -> 7 ;
17 [label="gini = 0.0\nsamples = 1\nvalue = [0, 1]", fillcolor="#399de5"] ;
7 -> 17 ;
18 [label="gini = 0.48\nsamples = 5\nvalue = [3, 2]", fillcolor="#f6d5bd"] ;
7 -> 18 ;
8 [label="gini = 0.0\nsamples = 4\nvalue = [4, 0]", fillcolor="#e58139"] ;
3 -> 8 ;
4 [label="X[1] <= 0.032\ngini = 0.159\nsamples = 46\nvalue = [4, 42]", fillcolor="#4ca6e7"] ;
1 -> 4 ;
9 [label="gini = 0.061\nsamples = 32\nvalue = [1, 31]", fillcolor="#3fa0e6"] ;
4 -> 9 ;
10 [label="X[1] <= 0.065\ngini = 0.337\nsamples = 14\nvalue = [3, 11]", fillcolor="#6fb8ec"] ;
4 -> 10 ;
11 [label="gini = 0.0\nsamples = 1\nvalue = [1, 0]", fillcolor="#e58139"] ;
10 -> 11 ;
12 [label="X[1] <= 0.232\ngini = 0.26\nsamples = 13\nvalue = [2, 11]", fillcolor="#5dafea"] ;
10 -> 12 ;
13 [label="X[1] <= 0.177\ngini = 0.444\nsamples = 6\nvalue = [2, 4]", fillcolor="#9ccef2"] ;
12 -> 13 ;
15 [label="gini = 0.0\nsamples = 4\nvalue = [0, 4]", fillcolor="#399de5"] ;
13 -> 15 ;
16 [label="gini = 0.0\nsamples = 2\nvalue = [2, 0]", fillcolor="#e58139"] ;
13 -> 16 ;
14 [label="gini = 0.0\nsamples = 7\nvalue = [0, 7]", fillcolor="#399de5"] ;
12 -> 14 ;
2 [label="X[0] <= 1.62\ngini = 0.236\nsamples = 44\nvalue = [38, 6]", fillcolor="#e99558"] ;
0 -> 2 [labeldistance=2.5, labelangle=-45, headlabel="False"] ;
5 [label="gini = 0.172\nsamples = 42\nvalue = [38, 4]", fillcolor="#e88e4e"] ;
2 -> 5 ;
6 [label="gini = 0.0\nsamples = 2\nvalue = [0, 2]", fillcolor="#399de5"] ;
2 -> 6 ;
}